const linesData_depth = [
    { x: 0, y: 1 },
    { x: 1, y: 3 },
    { x: 2, y: 2 },
    { x: 3, y: 4 },
    { x: 4, y: 3 },
    { x: 5, y: 5 },
    { x: 6, y: 4 },
    { x: 7, y: 6 },
    { x: 8, y: 5 },
    { x: 9, y: 2 }
]

const linesData_leaves = [
    { x: 0, y: 4 },
    { x: 1, y: 6 },
    { x: 2, y: 2 },
    { x: 3, y: 5 },
    { x: 4, y: 6 },
    { x: 5, y: 8 },
    { x: 6, y: 4 },
    { x: 7, y: 10 },
    { x: 8, y: 9 },
    { x: 9, y: 3 }
]
const linesData = [linesData_depth, linesData_leaves]

const streamData = [
    { index: 0, ad: 10, user: 30, media: 10 },
    { index: 1, ad: 15, user: 10, media: 30 },
    { index: 2, ad: 10, user: 15, media: 20 },
    { index: 3, ad: 25, user: 20, media: 15 },
    { index: 4, ad: 30, user: 25, media: 20 },
    { index: 5, ad: 5, user: 35, media: 17 }
];

const treesData = [
    {
        "tree_index": 0,
        "num_leaves": 47,
        "num_cat": 0,
        "shrinkage": 1,
        "tree_structure": {
            "split_index": 0,
            "split_feature": 10,
            "split_gain": 42.844200134277344,
            "threshold": 1.0000000180025095e-35,
            "decision_type": "<=",
            "default_left": true,
            "missing_type": "None",
            "internal_value": -1.30427,
            "internal_weight": 0,
            "internal_count": 1279,
            "left_child": {
                "split_index": 21,
                "split_feature": 11778,
                "split_gain": 4.197299957275391,
                "threshold": 1.0000000180025095e-35,
                "decision_type": "<=",
                "default_left": true,
                "missing_type": "None",
                "internal_value": -1.31108,
                "internal_weight": 64.469,
                "internal_count": 384,
                "left_child": {
                    "split_index": 28,
                    "split_feature": 12518,
                    "split_gain": 2.3313000202178955,
                    "threshold": 1.0000000180025095e-35,
                    "decision_type": "<=",
                    "default_left": true,
                    "missing_type": "None",
                    "internal_value": -1.31171,
                    "internal_weight": 60.7754,
                    "internal_count": 362,
                    "left_child": {
                        "split_index": 29,
                        "split_feature": 11784,
                        "split_gain": 3.0213499069213867,
                        "threshold": 1.0000000180025095e-35,
                        "decision_type": "<=",
                        "default_left": true,
                        "missing_type": "None",
                        "internal_value": -1.3109899999999999,
                        "internal_weight": 53.3884,
                        "internal_count": 318,
                        "left_child": {
                            "split_index": 30,
                            "split_feature": 4,
                            "split_gain": 5.286290168762207,
                            "threshold": 2994.0000000000005,
                            "decision_type": "<=",
                            "default_left": true,
                            "missing_type": "None",
                            "internal_value": -1.30985,
                            "internal_weight": 43.483,
                            "internal_count": 259,
                            "left_child": {
                                "split_index": 31,
                                "split_feature": 12,
                                "split_gain": 5.957359790802002,
                                "threshold": -1.0000000180025095e-35,
                                "decision_type": "<=",
                                "default_left": true,
                                "missing_type": "None",
                                "internal_value": -1.30444,
                                "internal_weight": 12.7595,
                                "internal_count": 76,
                                "left_child": {
                                    "leaf_index": 0,
                                    "leaf_value": -1.314497458932119,
                                    "leaf_weight": 4.029310941696168,
                                    "leaf_count": 24
                                },
                                "right_child": {
                                    "split_index": 32,
                                    "split_feature": 7832,
                                    "split_gain": 5.2592902183532715,
                                    "threshold": 1.0000000180025095e-35,
                                    "decision_type": "<=",
                                    "default_left": true,
                                    "missing_type": "None",
                                    "internal_value": -1.2998,
                                    "internal_weight": 8.73017,
                                    "internal_count": 52,
                                    "left_child": {
                                        "leaf_index": 32,
                                        "leaf_value": -1.3067096978815393,
                                        "leaf_weight": 4.868750721216198,
                                        "leaf_count": 29
                                    },
                                    "right_child": {
                                        "leaf_index": 33,
                                        "leaf_value": -1.291082083733219,
                                        "leaf_weight": 3.86142298579216,
                                        "leaf_count": 23
                                    }
                                }
                            },
                            "right_child": {
                                "split_index": 33,
                                "split_feature": 7,
                                "split_gain": 2.6572799682617188,
                                "threshold": 5.500000000000001,
                                "decision_type": "<=",
                                "default_left": true,
                                "missing_type": "None",
                                "internal_value": -1.3121,
                                "internal_weight": 30.7235,
                                "internal_count": 183,
                                "left_child": {
                                    "split_index": 34,
                                    "split_feature": 7,
                                    "split_gain": 5.162169933319092,
                                    "threshold": 3.5000000000000004,
                                    "decision_type": "<=",
                                    "default_left": true,
                                    "missing_type": "None",
                                    "internal_value": -1.30953,
                                    "internal_weight": 17.4603,
                                    "internal_count": 104,
                                    "left_child": {
                                        "split_index": 37,
                                        "split_feature": 4,
                                        "split_gain": 1.426300048828125,
                                        "threshold": 40780.50000000001,
                                        "decision_type": "<=",
                                        "default_left": true,
                                        "missing_type": "None",
                                        "internal_value": -1.31251,
                                        "internal_weight": 13.431,
                                        "internal_count": 80,
                                        "left_child": {
                                            "split_index": 41,
                                            "split_feature": 2,
                                            "split_gain": 0.5515140295028687,
                                            "threshold": 1.5000000000000002,
                                            "decision_type": "<=",
                                            "default_left": true,
                                            "missing_type": "None",
                                            "internal_value": -1.31477,
                                            "internal_weight": 9.06595,
                                            "internal_count": 54,
                                            "left_child": {
                                                "leaf_index": 31,
                                                "leaf_value": -1.3120156449709452,
                                                "leaf_weight": 4.029310941696172,
                                                "leaf_count": 24
                                            },
                                            "right_child": {
                                                "leaf_index": 42,
                                                "leaf_value": -1.3169792728932928,
                                                "leaf_weight": 5.036638677120209,
                                                "leaf_count": 30
                                            }
                                        },
                                        "right_child": {
                                            "leaf_index": 38,
                                            "leaf_value": -1.3078156521135744,
                                            "leaf_weight": 4.36508685350418,
                                            "leaf_count": 26
                                        }
                                    },
                                    "right_child": {
                                        "leaf_index": 35,
                                        "leaf_value": -1.2996065751650767,
                                        "leaf_weight": 4.029310941696166,
                                        "leaf_count": 24
                                    }
                                },
                                "right_child": {
                                    "split_index": 42,
                                    "split_feature": 3883,
                                    "split_gain": 0.5493199825286865,
                                    "threshold": 1.0000000180025095e-35,
                                    "decision_type": "<=",
                                    "default_left": true,
                                    "missing_type": "None",
                                    "internal_value": -1.31547,
                                    "internal_weight": 13.2631,
                                    "internal_count": 79,
                                    "left_child": {
                                        "leaf_index": 34,
                                        "leaf_value": -1.3127247346741377,
                                        "leaf_weight": 4.700862765312192,
                                        "leaf_count": 28
                                    },
                                    "right_child": {
                                        "leaf_index": 43,
                                        "leaf_value": -1.3169792728932928,
                                        "leaf_weight": 8.562285751104355,
                                        "leaf_count": 51
                                    }
                                }
                            }
                        },
                        "right_child": {
                            "split_index": 43,
                            "split_feature": 4,
                            "split_gain": 0.19686299562454224,
                            "threshold": 21094.500000000004,
                            "decision_type": "<=",
                            "default_left": true,
                            "missing_type": "None",
                            "internal_value": -1.31597,
                            "internal_weight": 9.90539,
                            "internal_count": 59,
                            "left_child": {
                                "leaf_index": 30,
                                "leaf_value": -1.3169792728932928,
                                "leaf_weight": 6.54763028025627,
                                "leaf_count": 39
                            },
                            "right_child": {
                                "leaf_index": 44,
                                "leaf_value": -1.3140010961398843,
                                "leaf_weight": 3.357759118080139,
                                "leaf_count": 20
                            }
                        }
                    },
                    "right_child": {
                        "split_index": 45,
                        "split_feature": 2,
                        "split_gain": 1.7763600157738027e-15,
                        "threshold": 5.500000000000001,
                        "decision_type": "<=",
                        "default_left": true,
                        "missing_type": "None",
                        "internal_value": -1.31698,
                        "internal_weight": 7.38707,
                        "internal_count": 44,
                        "left_child": {
                            "leaf_index": 29,
                            "leaf_value": -1.3169792728932928,
                            "leaf_weight": 3.5256470739841452,
                            "leaf_count": 21
                        },
                        "right_child": {
                            "leaf_index": 46,
                            "leaf_value": -1.3169792728932928,
                            "leaf_weight": 3.86142298579216,
                            "leaf_count": 23
                        }
                    }
                },
                "right_child": {
                    "leaf_index": 22,
                    "leaf_value": -1.3007346724201556,
                    "leaf_weight": 3.693535029888152,
                    "leaf_count": 22
                }
            },
            "right_child": {
                "split_index": 1,
                "split_feature": 4,
                "split_gain": 26.32550048828125,
                "threshold": 257.50000000000006,
                "decision_type": "<=",
                "default_left": true,
                "missing_type": "None",
                "internal_value": -1.30134,
                "internal_weight": 150.26,
                "internal_count": 895,
                "left_child": {
                    "split_index": 4,
                    "split_feature": 12,
                    "split_gain": 12.223600387573242,
                    "threshold": 10.500000000000002,
                    "decision_type": "<=",
                    "default_left": true,
                    "missing_type": "None",
                    "internal_value": -1.29487,
                    "internal_weight": 44.3224,
                    "internal_count": 264,
                    "left_child": {
                        "split_index": 5,
                        "split_feature": 9,
                        "split_gain": 14.187000274658203,
                        "threshold": 1.5000000000000002,
                        "decision_type": "<=",
                        "default_left": true,
                        "missing_type": "None",
                        "internal_value": -1.29141,
                        "internal_weight": 30.8914,
                        "internal_count": 184,
                        "left_child": {
                            "split_index": 9,
                            "split_feature": 10,
                            "split_gain": 6.428979873657227,
                            "threshold": 2.5000000000000004,
                            "decision_type": "<=",
                            "default_left": true,
                            "missing_type": "None",
                            "internal_value": -1.29422,
                            "internal_weight": 26.3584,
                            "internal_count": 157,
                            "left_child": {
                                "split_index": 15,
                                "split_feature": 12,
                                "split_gain": 5.577829837799072,
                                "threshold": 1.0000000180025095e-35,
                                "decision_type": "<=",
                                "default_left": true,
                                "missing_type": "None",
                                "internal_value": -1.29099,
                                "internal_weight": 18.4677,
                                "internal_count": 110,
                                "left_child": {
                                    "leaf_index": 1,
                                    "leaf_value": -1.282942967140053,
                                    "leaf_weight": 5.876078456640253,
                                    "leaf_count": 35
                                },
                                "right_child": {
                                    "split_index": 16,
                                    "split_feature": 12,
                                    "split_gain": 5.333940029144287,
                                    "threshold": 3.5000000000000004,
                                    "decision_type": "<=",
                                    "default_left": true,
                                    "missing_type": "None",
                                    "internal_value": -1.29474,
                                    "internal_weight": 12.5916,
                                    "internal_count": 75,
                                    "left_child": {
                                        "split_index": 20,
                                        "split_feature": 2,
                                        "split_gain": 4.5360798835754395,
                                        "threshold": 2.5000000000000004,
                                        "decision_type": "<=",
                                        "default_left": true,
                                        "missing_type": "None",
                                        "internal_value": -1.30036,
                                        "internal_weight": 7.21918,
                                        "internal_count": 43,
                                        "left_child": {
                                            "leaf_index": 16,
                                            "leaf_value": -1.292612372183587,
                                            "leaf_weight": 3.6935350298881513,
                                            "leaf_count": 22
                                        },
                                        "right_child": {
                                            "leaf_index": 21,
                                            "leaf_value": -1.3084701964549827,
                                            "leaf_weight": 3.525647073984146,
                                            "leaf_count": 21
                                        }
                                    },
                                    "right_child": {
                                        "leaf_index": 17,
                                        "leaf_value": -1.287197505359208,
                                        "leaf_weight": 5.372414588928223,
                                        "leaf_count": 32
                                    }
                                }
                            },
                            "right_child": {
                                "split_index": 22,
                                "split_feature": 0,
                                "split_gain": 4.184189796447754,
                                "threshold": 2.5000000000000004,
                                "decision_type": "<=",
                                "default_left": true,
                                "missing_type": "None",
                                "internal_value": -1.3017699999999999,
                                "internal_weight": 7.89073,
                                "internal_count": 47,
                                "left_child": {
                                    "leaf_index": 10,
                                    "leaf_value": -1.3092101161452707,
                                    "leaf_weight": 3.861422985792159,
                                    "leaf_count": 23
                                },
                                "right_child": {
                                    "leaf_index": 23,
                                    "leaf_value": -1.2946429472427292,
                                    "leaf_weight": 4.029310941696167,
                                    "leaf_count": 24
                                }
                            }
                        },
                        "right_child": {
                            "leaf_index": 6,
                            "leaf_value": -1.2750641926601365,
                            "leaf_weight": 4.532974809408187,
                            "leaf_count": 27
                        }
                    },
                    "right_child": {
                        "split_index": 11,
                        "split_feature": 7,
                        "split_gain": 6.227849960327148,
                        "threshold": 21.500000000000004,
                        "decision_type": "<=",
                        "default_left": true,
                        "missing_type": "None",
                        "internal_value": -1.30283,
                        "internal_weight": 13.431,
                        "internal_count": 80,
                        "left_child": {
                            "leaf_index": 5,
                            "leaf_value": -1.3103611023301627,
                            "leaf_weight": 6.043966412544249,
                            "leaf_count": 36
                        },
                        "right_child": {
                            "split_index": 26,
                            "split_feature": 7,
                            "split_gain": 2.599139928817749,
                            "threshold": 33.50000000000001,
                            "decision_type": "<=",
                            "default_left": true,
                            "missing_type": "None",
                            "internal_value": -1.29667,
                            "internal_weight": 7.38707,
                            "internal_count": 44,
                            "left_child": {
                                "leaf_index": 12,
                                "leaf_value": -1.2901756821126165,
                                "leaf_weight": 3.357759118080139,
                                "leaf_count": 20
                            },
                            "right_child": {
                                "leaf_index": 27,
                                "leaf_value": -1.3020883891262502,
                                "leaf_weight": 4.029310941696167,
                                "leaf_count": 24
                            }
                        }
                    }
                },
                "right_child": {
                    "split_index": 2,
                    "split_feature": 7,
                    "split_gain": 18.231700897216797,
                    "threshold": 1.0000000180025095e-35,
                    "decision_type": "<=",
                    "default_left": true,
                    "missing_type": "None",
                    "internal_value": -1.30405,
                    "internal_weight": 105.937,
                    "internal_count": 631,
                    "left_child": {
                        "split_index": 6,
                        "split_feature": 10,
                        "split_gain": 9.172140121459961,
                        "threshold": 1.5000000000000002,
                        "decision_type": "<=",
                        "default_left": true,
                        "missing_type": "None",
                        "internal_value": -1.2923,
                        "internal_weight": 11.7522,
                        "internal_count": 70,
                        "left_child": {
                            "leaf_index": 2,
                            "leaf_value": -1.300179301463809,
                            "leaf_weight": 6.54763028025627,
                            "leaf_count": 39
                        },
                        "right_child": {
                            "leaf_index": 7,
                            "leaf_value": -1.2823939944666136,
                            "leaf_weight": 5.204526633024216,
                            "leaf_count": 31
                        }
                    },
                    "right_child": {
                        "split_index": 3,
                        "split_feature": 10,
                        "split_gain": 15.70930004119873,
                        "threshold": 6.500000000000001,
                        "decision_type": "<=",
                        "default_left": true,
                        "missing_type": "None",
                        "internal_value": -1.30551,
                        "internal_weight": 94.1851,
                        "internal_count": 561,
                        "left_child": {
                            "split_index": 7,
                            "split_feature": 6,
                            "split_gain": 8.368539810180664,
                            "threshold": 2.5000000000000004,
                            "decision_type": "<=",
                            "default_left": true,
                            "missing_type": "None",
                            "internal_value": -1.30676,
                            "internal_weight": 86.1265,
                            "internal_count": 513,
                            "left_child": {
                                "split_index": 13,
                                "split_feature": 4,
                                "split_gain": 5.665410041809082,
                                "threshold": 10159.500000000002,
                                "decision_type": "<=",
                                "default_left": true,
                                "missing_type": "None",
                                "internal_value": -1.31089,
                                "internal_weight": 31.2272,
                                "internal_count": 186,
                                "left_child": {
                                    "split_index": 25,
                                    "split_feature": 10563,
                                    "split_gain": 2.6018500328063965,
                                    "threshold": 1.0000000180025095e-35,
                                    "decision_type": "<=",
                                    "default_left": true,
                                    "missing_type": "None",
                                    "internal_value": -1.31323,
                                    "internal_weight": 24.008,
                                    "internal_count": 143,
                                    "left_child": {
                                        "split_index": 39,
                                        "split_feature": 2714,
                                        "split_gain": 1.0118800401687622,
                                        "threshold": 1.0000000180025095e-35,
                                        "decision_type": "<=",
                                        "default_left": true,
                                        "missing_type": "None",
                                        "internal_value": -1.31456,
                                        "internal_weight": 20.6502,
                                        "internal_count": 123,
                                        "left_child": {
                                            "split_index": 40,
                                            "split_feature": 3883,
                                            "split_gain": 2.032020092010498,
                                            "threshold": 1.0000000180025095e-35,
                                            "decision_type": "<=",
                                            "default_left": true,
                                            "missing_type": "None",
                                            "internal_value": -1.31253,
                                            "internal_weight": 11.2485,
                                            "internal_count": 67,
                                            "left_child": {
                                                "leaf_index": 3,
                                                "leaf_value": -1.3169792728932928,
                                                "leaf_weight": 5.37241458892823,
                                                "leaf_count": 32
                                            },
                                            "right_child": {
                                                "leaf_index": 41,
                                                "leaf_value": -1.3084701964549827,
                                                "leaf_weight": 5.8760784566402435,
                                                "leaf_count": 35
                                            }
                                        },
                                        "right_child": {
                                            "split_index": 44,
                                            "split_feature": 2,
                                            "split_gain": 3.552710078910475e-15,
                                            "threshold": 4.500000000000001,
                                            "decision_type": "<=",
                                            "default_left": true,
                                            "missing_type": "None",
                                            "internal_value": -1.31698,
                                            "internal_weight": 9.40173,
                                            "internal_count": 56,
                                            "left_child": {
                                                "leaf_index": 40,
                                                "leaf_value": -1.3169792728932928,
                                                "leaf_weight": 5.204526633024216,
                                                "leaf_count": 31
                                            },
                                            "right_child": {
                                                "leaf_index": 45,
                                                "leaf_value": -1.3169792728932928,
                                                "leaf_weight": 4.197198897600174,
                                                "leaf_count": 25
                                            }
                                        }
                                    },
                                    "right_child": {
                                        "leaf_index": 26,
                                        "leaf_value": -1.3050665658796587,
                                        "leaf_weight": 3.3577591180801383,
                                        "leaf_count": 20
                                    }
                                },
                                "right_child": {
                                    "split_index": 14,
                                    "split_feature": 12,
                                    "split_gain": 6.244229793548584,
                                    "threshold": 3.5000000000000004,
                                    "decision_type": "<=",
                                    "default_left": true,
                                    "missing_type": "None",
                                    "internal_value": -1.30313,
                                    "internal_weight": 7.21918,
                                    "internal_count": 43,
                                    "left_child": {
                                        "leaf_index": 14,
                                        "leaf_value": -1.293153858866025,
                                        "leaf_weight": 3.3577591180801383,
                                        "leaf_count": 20
                                    },
                                    "right_child": {
                                        "leaf_index": 15,
                                        "leaf_value": -1.311799835061278,
                                        "leaf_weight": 3.86142298579216,
                                        "leaf_count": 23
                                    }
                                }
                            },
                            "right_child": {
                                "split_index": 8,
                                "split_feature": 8,
                                "split_gain": 8.168549537658691,
                                "threshold": 160.00000000000003,
                                "decision_type": "<=",
                                "default_left": true,
                                "missing_type": "None",
                                "internal_value": -1.30441,
                                "internal_weight": 54.8994,
                                "internal_count": 327,
                                "left_child": {
                                    "split_index": 10,
                                    "split_feature": 2,
                                    "split_gain": 6.3636298179626465,
                                    "threshold": 18.500000000000004,
                                    "decision_type": "<=",
                                    "default_left": true,
                                    "missing_type": "None",
                                    "internal_value": -1.30209,
                                    "internal_weight": 40.2931,
                                    "internal_count": 240,
                                    "left_child": {
                                        "split_index": 12,
                                        "split_feature": 10564,
                                        "split_gain": 5.979360103607178,
                                        "threshold": 1.0000000180025095e-35,
                                        "decision_type": "<=",
                                        "default_left": true,
                                        "missing_type": "None",
                                        "internal_value": -1.3001800000000001,
                                        "internal_weight": 32.7382,
                                        "internal_count": 195,
                                        "left_child": {
                                            "split_index": 18,
                                            "split_feature": 11777,
                                            "split_gain": 4.8024702072143555,
                                            "threshold": 1.0000000180025095e-35,
                                            "decision_type": "<=",
                                            "default_left": true,
                                            "missing_type": "None",
                                            "internal_value": -1.3017400000000001,
                                            "internal_weight": 28.8767,
                                            "internal_count": 172,
                                            "left_child": {
                                                "split_index": 19,
                                                "split_feature": 7,
                                                "split_gain": 5.988870143890381,
                                                "threshold": 13.500000000000002,
                                                "decision_type": "<=",
                                                "default_left": true,
                                                "missing_type": "None",
                                                "internal_value": -1.30384,
                                                "internal_weight": 22.8328,
                                                "internal_count": 136,
                                                "left_child": {
                                                    "split_index": 23,
                                                    "split_feature": 7832,
                                                    "split_gain": 3.213200092315674,
                                                    "threshold": 1.0000000180025095e-35,
                                                    "decision_type": "<=",
                                                    "default_left": true,
                                                    "missing_type": "None",
                                                    "internal_value": -1.30006,
                                                    "internal_weight": 14.7741,
                                                    "internal_count": 88,
                                                    "left_child": {
                                                        "split_index": 24,
                                                        "split_feature": 4,
                                                        "split_gain": 5.9268798828125,
                                                        "threshold": 1973.0000000000002,
                                                        "decision_type": "<=",
                                                        "default_left": true,
                                                        "missing_type": "None",
                                                        "internal_value": -1.29679,
                                                        "internal_weight": 9.90539,
                                                        "internal_count": 59,
                                                        "left_child": {
                                                            "leaf_index": 8,
                                                            "leaf_value": -1.3046557828791887,
                                                            "leaf_weight": 4.868750721216207,
                                                            "leaf_count": 29
                                                        },
                                                        "right_child": {
                                                            "leaf_index": 25,
                                                            "leaf_value": -1.289182956528147,
                                                            "leaf_weight": 5.036638677120209,
                                                            "leaf_count": 30
                                                        }
                                                    },
                                                    "right_child": {
                                                        "leaf_index": 24,
                                                        "leaf_value": -1.3067096978815393,
                                                        "leaf_weight": 4.868750721216201,
                                                        "leaf_count": 29
                                                    }
                                                },
                                                "right_child": {
                                                    "split_index": 36,
                                                    "split_feature": 11776,
                                                    "split_gain": 1.4587199687957764,
                                                    "threshold": 1.0000000180025095e-35,
                                                    "decision_type": "<=",
                                                    "default_left": true,
                                                    "missing_type": "None",
                                                    "internal_value": -1.31077,
                                                    "internal_weight": 8.05862,
                                                    "internal_count": 48,
                                                    "left_child": {
                                                        "leaf_index": 20,
                                                        "leaf_value": -1.3061495392445346,
                                                        "leaf_weight": 3.6935350298881513,
                                                        "leaf_count": 22
                                                    },
                                                    "right_child": {
                                                        "leaf_index": 37,
                                                        "leaf_value": -1.3146883676983632,
                                                        "leaf_weight": 4.365086853504181,
                                                        "leaf_count": 26
                                                    }
                                                }
                                            },
                                            "right_child": {
                                                "leaf_index": 19,
                                                "leaf_value": -1.2938156759223378,
                                                "leaf_weight": 6.04396641254425,
                                                "leaf_count": 36
                                            }
                                        },
                                        "right_child": {
                                            "leaf_index": 13,
                                            "leaf_value": -1.2884923648172117,
                                            "leaf_weight": 3.861422985792159,
                                            "leaf_count": 23
                                        }
                                    },
                                    "right_child": {
                                        "split_index": 38,
                                        "split_feature": 6,
                                        "split_gain": 1.2817800045013428,
                                        "threshold": 6.500000000000001,
                                        "decision_type": "<=",
                                        "default_left": true,
                                        "missing_type": "None",
                                        "internal_value": -1.31036,
                                        "internal_weight": 7.55496,
                                        "internal_count": 45,
                                        "left_child": {
                                            "leaf_index": 11,
                                            "leaf_value": -1.3143895539772854,
                                            "leaf_weight": 3.861422985792159,
                                            "leaf_count": 23
                                        },
                                        "right_child": {
                                            "leaf_index": 39,
                                            "leaf_value": -1.3061495392445346,
                                            "leaf_weight": 3.693535029888153,
                                            "leaf_count": 22
                                        }
                                    }
                                },
                                "right_child": {
                                    "split_index": 27,
                                    "split_feature": 7,
                                    "split_gain": 2.4178199768066406,
                                    "threshold": 30.500000000000004,
                                    "decision_type": "<=",
                                    "default_left": true,
                                    "missing_type": "None",
                                    "internal_value": -1.31082,
                                    "internal_weight": 14.6063,
                                    "internal_count": 87,
                                    "left_child": {
                                        "split_index": 35,
                                        "split_feature": 2714,
                                        "split_gain": 1.7971800565719604,
                                        "threshold": 1.0000000180025095e-35,
                                        "decision_type": "<=",
                                        "default_left": true,
                                        "missing_type": "None",
                                        "internal_value": -1.31326,
                                        "internal_weight": 10.7448,
                                        "internal_count": 64,
                                        "left_child": {
                                            "leaf_index": 9,
                                            "leaf_value": -1.30876361288389,
                                            "leaf_weight": 4.8687507212162,
                                            "leaf_count": 29
                                        },
                                        "right_child": {
                                            "leaf_index": 36,
                                            "leaf_value": -1.3169792728932928,
                                            "leaf_weight": 5.8760784566402435,
                                            "leaf_count": 35
                                        }
                                    },
                                    "right_child": {
                                        "leaf_index": 28,
                                        "leaf_value": -1.3040306783132558,
                                        "leaf_weight": 3.861422985792159,
                                        "leaf_count": 23
                                    }
                                }
                            }
                        },
                        "right_child": {
                            "split_index": 17,
                            "split_feature": 2714,
                            "split_gain": 5.3260498046875,
                            "threshold": 1.0000000180025095e-35,
                            "decision_type": "<=",
                            "default_left": true,
                            "missing_type": "None",
                            "internal_value": -1.29216,
                            "internal_weight": 8.05862,
                            "internal_count": 48,
                            "left_child": {
                                "leaf_index": 4,
                                "leaf_value": -1.2993308180582794,
                                "leaf_weight": 4.532974809408186,
                                "leaf_count": 27
                            },
                            "right_child": {
                                "leaf_index": 18,
                                "leaf_value": -1.282942967140053,
                                "leaf_weight": 3.525647073984146,
                                "leaf_count": 21
                            }
                        }
                    }
                }
            }
        }
    },
    {
        "tree_index": 1,
        "num_leaves": 49,
        "num_cat": 0,
        "shrinkage": 0.01,
        "tree_structure": {
            "split_index": 0,
            "split_feature": 10,
            "split_gain": 42.08470153808594,
            "threshold": 1.0000000180025095e-35,
            "decision_type": "<=",
            "default_left": true,
            "missing_type": "None",
            "internal_value": 0,
            "internal_weight": 0,
            "internal_count": 1279,
            "left_child": {
                "split_index": 16,
                "split_feature": 9825,
                "split_gain": 4.535950183868408,
                "threshold": 1.0000000180025095e-35,
                "decision_type": "<=",
                "default_left": true,
                "missing_type": "None",
                "internal_value": -0.006778,
                "internal_weight": 64.217,
                "internal_count": 384,
                "left_child": {
                    "split_index": 17,
                    "split_feature": 143,
                    "split_gain": 5.047639846801758,
                    "threshold": 1.0000000180025095e-35,
                    "decision_type": "<=",
                    "default_left": true,
                    "missing_type": "None",
                    "internal_value": -0.00840855,
                    "internal_weight": 46.6558,
                    "internal_count": 279,
                    "left_child": {
                        "split_index": 32,
                        "split_feature": 8,
                        "split_gain": 1.8071800470352173,
                        "threshold": 18.500000000000004,
                        "decision_type": "<=",
                        "default_left": true,
                        "missing_type": "None",
                        "internal_value": -0.00987079,
                        "internal_weight": 38.9568,
                        "internal_count": 233,
                        "left_child": {
                            "split_index": 34,
                            "split_feature": 4,
                            "split_gain": 1.5295300483703613,
                            "threshold": 4330.500000000001,
                            "decision_type": "<=",
                            "default_left": true,
                            "missing_type": "None",
                            "internal_value": -0.00783459,
                            "internal_weight": 20.5711,
                            "internal_count": 123,
                            "left_child": {
                                "split_index": 35,
                                "split_feature": 4,
                                "split_gain": 5.280129909515381,
                                "threshold": 42.00000000000001,
                                "decision_type": "<=",
                                "default_left": true,
                                "missing_type": "None",
                                "internal_value": -0.00464878,
                                "internal_weight": 8.69806,
                                "internal_count": 52,
                                "left_child": {
                                    "leaf_index": 0,
                                    "leaf_value": -0.010819304325436799,
                                    "leaf_weight": 5.34534113109112,
                                    "leaf_count": 32
                                },
                                "right_child": {
                                    "leaf_index": 36,
                                    "leaf_value": 0.005189063091819604,
                                    "leaf_weight": 3.352721020579338,
                                    "leaf_count": 20
                                }
                            },
                            "right_child": {
                                "split_index": 38,
                                "split_feature": 8,
                                "split_gain": 0.5874729752540588,
                                "threshold": 2.5000000000000004,
                                "decision_type": "<=",
                                "default_left": true,
                                "missing_type": "None",
                                "internal_value": -0.0101685,
                                "internal_weight": 11.873,
                                "internal_count": 71,
                                "left_child": {
                                    "split_index": 41,
                                    "split_feature": 4,
                                    "split_gain": 0.14785799384117126,
                                    "threshold": 30413.500000000004,
                                    "decision_type": "<=",
                                    "default_left": true,
                                    "missing_type": "None",
                                    "internal_value": -0.00821025,
                                    "internal_weight": 6.68902,
                                    "internal_count": 40,
                                    "left_child": {
                                        "leaf_index": 35,
                                        "leaf_value": -0.009698345053735737,
                                        "leaf_weight": 3.3415151685476285,
                                        "leaf_count": 20
                                    },
                                    "right_child": {
                                        "leaf_index": 42,
                                        "leaf_value": -0.006724823251696575,
                                        "leaf_weight": 3.3475073873996735,
                                        "leaf_count": 20
                                    }
                                },
                                "right_child": {
                                    "leaf_index": 39,
                                    "leaf_value": -0.0126952359285808,
                                    "leaf_weight": 5.183989033102989,
                                    "leaf_count": 31
                                }
                            }
                        },
                        "right_child": {
                            "split_index": 39,
                            "split_feature": 2509,
                            "split_gain": 0.24566200375556946,
                            "threshold": 1.0000000180025095e-35,
                            "decision_type": "<=",
                            "default_left": true,
                            "missing_type": "None",
                            "internal_value": -0.012149,
                            "internal_weight": 18.3857,
                            "internal_count": 110,
                            "left_child": {
                                "split_index": 42,
                                "split_feature": 4,
                                "split_gain": 7.437360181938857e-06,
                                "threshold": 3069.0000000000005,
                                "decision_type": "<=",
                                "default_left": true,
                                "missing_type": "None",
                                "internal_value": -0.0126937,
                                "internal_weight": 15.0452,
                                "internal_count": 90,
                                "left_child": {
                                    "leaf_index": 33,
                                    "leaf_value": -0.012705326967572513,
                                    "leaf_weight": 4.021882295608523,
                                    "leaf_count": 24
                                },
                                "right_child": {
                                    "split_index": 43,
                                    "split_feature": 4,
                                    "split_gain": 3.3543699373694835e-06,
                                    "threshold": 22545.500000000004,
                                    "decision_type": "<=",
                                    "default_left": true,
                                    "missing_type": "None",
                                    "internal_value": -0.0126894,
                                    "internal_weight": 11.0234,
                                    "internal_count": 66,
                                    "left_child": {
                                        "leaf_index": 43,
                                        "leaf_value": -0.012682589774346107,
                                        "leaf_weight": 4.336213886737822,
                                        "leaf_count": 26
                                    },
                                    "right_child": {
                                        "split_index": 47,
                                        "split_feature": 4,
                                        "split_gain": 6.147919862087292e-07,
                                        "threshold": 39147.50000000001,
                                        "decision_type": "<=",
                                        "default_left": true,
                                        "missing_type": "None",
                                        "internal_value": -0.0126939,
                                        "internal_weight": 6.68715,
                                        "internal_count": 40,
                                        "left_child": {
                                            "leaf_index": 44,
                                            "leaf_value": -0.012690848119629792,
                                            "leaf_weight": 3.341405361890793,
                                            "leaf_count": 20
                                        },
                                        "right_child": {
                                            "leaf_index": 48,
                                            "leaf_value": -0.012696912321813596,
                                            "leaf_weight": 3.345744773745537,
                                            "leaf_count": 20
                                        }
                                    }
                                }
                            },
                            "right_child": {
                                "leaf_index": 40,
                                "leaf_value": -0.009695852159563518,
                                "leaf_weight": 3.3404353708028784,
                                "leaf_count": 20
                            }
                        }
                    },
                    "right_child": {
                        "split_index": 29,
                        "split_feature": 7,
                        "split_gain": 2.2887699604034424,
                        "threshold": 2.5000000000000004,
                        "decision_type": "<=",
                        "default_left": true,
                        "missing_type": "None",
                        "internal_value": -0.00100972,
                        "internal_weight": 7.69908,
                        "internal_count": 46,
                        "left_child": {
                            "leaf_index": 18,
                            "leaf_value": -0.005796126144463028,
                            "leaf_weight": 4.348169431090354,
                            "leaf_count": 26
                        },
                        "right_child": {
                            "leaf_index": 30,
                            "leaf_value": 0.005201170652345079,
                            "leaf_weight": 3.3509082198143005,
                            "leaf_count": 20
                        }
                    }
                },
                "right_child": {
                    "split_index": 20,
                    "split_feature": 7,
                    "split_gain": 4.116340160369873,
                    "threshold": 5.500000000000001,
                    "decision_type": "<=",
                    "default_left": true,
                    "missing_type": "None",
                    "internal_value": -0.00244603,
                    "internal_weight": 17.5612,
                    "internal_count": 105,
                    "left_child": {
                        "split_index": 36,
                        "split_feature": 8,
                        "split_gain": 1.308940052986145,
                        "threshold": 27.500000000000004,
                        "decision_type": "<=",
                        "default_left": true,
                        "missing_type": "None",
                        "internal_value": 0.00253288,
                        "internal_weight": 8.53487,
                        "internal_count": 51,
                        "left_child": {
                            "leaf_index": 17,
                            "leaf_value": -0.0007444201457458406,
                            "leaf_weight": 5.019500464200975,
                            "leaf_count": 30
                        },
                        "right_child": {
                            "leaf_index": 37,
                            "leaf_value": 0.007212452004584035,
                            "leaf_weight": 3.515372186899185,
                            "leaf_count": 21
                        }
                    },
                    "right_child": {
                        "split_index": 21,
                        "split_feature": 4,
                        "split_gain": 4.005090236663818,
                        "threshold": 11631.500000000002,
                        "decision_type": "<=",
                        "default_left": true,
                        "missing_type": "None",
                        "internal_value": -0.00715388,
                        "internal_weight": 9.02629,
                        "internal_count": 54,
                        "left_child": {
                            "leaf_index": 21,
                            "leaf_value": 0.0008659705042349074,
                            "leaf_weight": 3.684895142912863,
                            "leaf_count": 22
                        },
                        "right_child": {
                            "leaf_index": 22,
                            "leaf_value": -0.012686581959017146,
                            "leaf_weight": 5.3413956463336945,
                            "leaf_count": 32
                        }
                    }
                }
            },
            "right_child": {
                "split_index": 1,
                "split_feature": 4,
                "split_gain": 25.615400314331055,
                "threshold": 257.50000000000006,
                "decision_type": "<=",
                "default_left": true,
                "missing_type": "None",
                "internal_value": 0.00289134,
                "internal_weight": 150.512,
                "internal_count": 895,
                "left_child": {
                    "split_index": 6,
                    "split_feature": 9,
                    "split_gain": 10.480799674987793,
                    "threshold": 1.5000000000000002,
                    "decision_type": "<=",
                    "default_left": true,
                    "missing_type": "None",
                    "internal_value": 0.00925255,
                    "internal_weight": 44.5611,
                    "internal_count": 264,
                    "left_child": {
                        "split_index": 12,
                        "split_feature": 6,
                        "split_gain": 4.552740097045898,
                        "threshold": 5.500000000000001,
                        "decision_type": "<=",
                        "default_left": true,
                        "missing_type": "None",
                        "internal_value": 0.00737983,
                        "internal_weight": 38.7788,
                        "internal_count": 230,
                        "left_child": {
                            "split_index": 14,
                            "split_feature": 9825,
                            "split_gain": 7.732810020446777,
                            "threshold": 1.0000000180025095e-35,
                            "decision_type": "<=",
                            "default_left": true,
                            "missing_type": "None",
                            "internal_value": 0.0108638,
                            "internal_weight": 19.0664,
                            "internal_count": 113,
                            "left_child": {
                                "split_index": 26,
                                "split_feature": 8,
                                "split_gain": 3.4442200660705566,
                                "threshold": 9.500000000000002,
                                "decision_type": "<=",
                                "default_left": true,
                                "missing_type": "None",
                                "internal_value": 0.00650822,
                                "internal_weight": 12.9902,
                                "internal_count": 77,
                                "left_child": {
                                    "split_index": 37,
                                    "split_feature": 6,
                                    "split_gain": 0.6969580054283142,
                                    "threshold": 1.5000000000000002,
                                    "decision_type": "<=",
                                    "default_left": true,
                                    "missing_type": "None",
                                    "internal_value": 0.0111985,
                                    "internal_weight": 7.09957,
                                    "internal_count": 42,
                                    "left_child": {
                                        "leaf_index": 1,
                                        "leaf_value": 0.014190559591337483,
                                        "leaf_weight": 3.7133235335350054,
                                        "leaf_count": 22
                                    },
                                    "right_child": {
                                        "leaf_index": 38,
                                        "leaf_value": 0.007917510608719038,
                                        "leaf_weight": 3.386244773864746,
                                        "leaf_count": 20
                                    }
                                },
                                "right_child": {
                                    "leaf_index": 27,
                                    "leaf_value": 0.0008552704770919737,
                                    "leaf_weight": 5.890584960579872,
                                    "leaf_count": 35
                                }
                            },
                            "right_child": {
                                "leaf_index": 15,
                                "leaf_value": 0.02017535497092457,
                                "leaf_weight": 6.076278239488601,
                                "leaf_count": 36
                            }
                        },
                        "right_child": {
                            "split_index": 13,
                            "split_feature": 2,
                            "split_gain": 8.076749801635742,
                            "threshold": 20.500000000000004,
                            "decision_type": "<=",
                            "default_left": true,
                            "missing_type": "None",
                            "internal_value": 0.00401002,
                            "internal_weight": 19.7123,
                            "internal_count": 117,
                            "left_child": {
                                "split_index": 15,
                                "split_feature": 4,
                                "split_gain": 5.490670204162598,
                                "threshold": 7.500000000000001,
                                "decision_type": "<=",
                                "default_left": true,
                                "missing_type": "None",
                                "internal_value": -0.000262059,
                                "internal_weight": 13.6377,
                                "internal_count": 81,
                                "left_child": {
                                    "leaf_index": 13,
                                    "leaf_value": 0.008461793503298782,
                                    "leaf_weight": 4.718422785401347,
                                    "leaf_count": 28
                                },
                                "right_child": {
                                    "split_index": 18,
                                    "split_feature": 2,
                                    "split_gain": 4.395679950714111,
                                    "threshold": 1.5000000000000002,
                                    "decision_type": "<=",
                                    "default_left": true,
                                    "missing_type": "None",
                                    "internal_value": -0.00487711,
                                    "internal_weight": 8.91926,
                                    "internal_count": 53,
                                    "left_child": {
                                        "leaf_index": 16,
                                        "leaf_value": 0.0034436141821161423,
                                        "leaf_weight": 3.7088877707719785,
                                        "leaf_count": 22
                                    },
                                    "right_child": {
                                        "leaf_index": 19,
                                        "leaf_value": -0.010800039839635114,
                                        "leaf_weight": 5.210367396473885,
                                        "leaf_count": 31
                                    }
                                }
                            },
                            "right_child": {
                                "leaf_index": 14,
                                "leaf_value": 0.013600921570761426,
                                "leaf_weight": 6.074640735983848,
                                "leaf_count": 36
                            }
                        }
                    },
                    "right_child": {
                        "leaf_index": 7,
                        "leaf_value": 0.021811841260720808,
                        "leaf_weight": 5.782308742403983,
                        "leaf_count": 34
                    }
                },
                "right_child": {
                    "split_index": 2,
                    "split_feature": 7,
                    "split_gain": 17.756799697875977,
                    "threshold": 1.0000000180025095e-35,
                    "decision_type": "<=",
                    "default_left": true,
                    "missing_type": "None",
                    "internal_value": 0.000215919,
                    "internal_weight": 105.951,
                    "internal_count": 631,
                    "left_child": {
                        "split_index": 7,
                        "split_feature": 10,
                        "split_gain": 8.795989990234375,
                        "threshold": 1.5000000000000002,
                        "decision_type": "<=",
                        "default_left": true,
                        "missing_type": "None",
                        "internal_value": 0.0117617,
                        "internal_weight": 11.832699999999999,
                        "internal_count": 70,
                        "left_child": {
                            "leaf_index": 2,
                            "leaf_value": 0.004035891624343885,
                            "leaf_weight": 6.56296321749687,
                            "leaf_count": 39
                        },
                        "right_child": {
                            "leaf_index": 8,
                            "leaf_value": 0.02138349803755092,
                            "leaf_weight": 5.269749224185944,
                            "leaf_count": 31
                        }
                    },
                    "right_child": {
                        "split_index": 3,
                        "split_feature": 10,
                        "split_gain": 15.322799682617188,
                        "threshold": 6.500000000000001,
                        "decision_type": "<=",
                        "default_left": true,
                        "missing_type": "None",
                        "internal_value": -0.00123565,
                        "internal_weight": 94.1178,
                        "internal_count": 561,
                        "left_child": {
                            "split_index": 4,
                            "split_feature": 9825,
                            "split_gain": 12.097000122070312,
                            "threshold": 1.0000000180025095e-35,
                            "decision_type": "<=",
                            "default_left": true,
                            "missing_type": "None",
                            "internal_value": -0.00247503,
                            "internal_weight": 86.0033,
                            "internal_count": 513,
                            "left_child": {
                                "split_index": 11,
                                "split_feature": 104,
                                "split_gain": 4.570320129394531,
                                "threshold": 1.0000000180025095e-35,
                                "decision_type": "<=",
                                "default_left": true,
                                "missing_type": "None",
                                "internal_value": -0.00596877,
                                "internal_weight": 46.0454,
                                "internal_count": 275,
                                "left_child": {
                                    "split_index": 19,
                                    "split_feature": 7,
                                    "split_gain": 4.149640083312988,
                                    "threshold": 11.500000000000002,
                                    "decision_type": "<=",
                                    "default_left": true,
                                    "missing_type": "None",
                                    "internal_value": -0.00696599,
                                    "internal_weight": 41.8523,
                                    "internal_count": 250,
                                    "left_child": {
                                        "split_index": 27,
                                        "split_feature": 10383,
                                        "split_gain": 3.0748701095581055,
                                        "threshold": 1.0000000180025095e-35,
                                        "decision_type": "<=",
                                        "default_left": true,
                                        "missing_type": "None",
                                        "internal_value": -0.00392061,
                                        "internal_weight": 21.6248,
                                        "internal_count": 129,
                                        "left_child": {
                                            "split_index": 28,
                                            "split_feature": 8,
                                            "split_gain": 3.9793100357055664,
                                            "threshold": 60.50000000000001,
                                            "decision_type": "<=",
                                            "default_left": true,
                                            "missing_type": "None",
                                            "internal_value": -0.00143816,
                                            "internal_weight": 15.0864,
                                            "internal_count": 90,
                                            "left_child": {
                                                "split_index": 30,
                                                "split_feature": 11776,
                                                "split_gain": 2.214669942855835,
                                                "threshold": 1.0000000180025095e-35,
                                                "decision_type": "<=",
                                                "default_left": true,
                                                "missing_type": "None",
                                                "internal_value": 0.00275359,
                                                "internal_weight": 9.05466,
                                                "internal_count": 54,
                                                "left_child": {
                                                    "leaf_index": 3,
                                                    "leaf_value": -0.002773898211022065,
                                                    "leaf_weight": 4.025787845253946,
                                                    "leaf_count": 24
                                                },
                                                "right_child": {
                                                    "leaf_index": 31,
                                                    "leaf_value": 0.007178543958744628,
                                                    "leaf_weight": 5.028873324394226,
                                                    "leaf_count": 30
                                                }
                                            },
                                            "right_child": {
                                                "leaf_index": 29,
                                                "leaf_value": -0.007730715417575801,
                                                "leaf_weight": 6.0317120999097815,
                                                "leaf_count": 36
                                            }
                                        },
                                        "right_child": {
                                            "leaf_index": 28,
                                            "leaf_value": -0.009648486550453136,
                                            "leaf_weight": 6.538422167301177,
                                            "leaf_count": 39
                                        }
                                    },
                                    "right_child": {
                                        "split_index": 22,
                                        "split_feature": 6,
                                        "split_gain": 3.7260499000549316,
                                        "threshold": 5.500000000000001,
                                        "decision_type": "<=",
                                        "default_left": true,
                                        "missing_type": "None",
                                        "internal_value": -0.0102217,
                                        "internal_weight": 20.2275,
                                        "internal_count": 121,
                                        "left_child": {
                                            "split_index": 44,
                                            "split_feature": 2714,
                                            "split_gain": 1.6720999838071293e-06,
                                            "threshold": 1.0000000180025095e-35,
                                            "decision_type": "<=",
                                            "default_left": true,
                                            "missing_type": "None",
                                            "internal_value": -0.0126899,
                                            "internal_weight": 15.2005,
                                            "internal_count": 91,
                                            "left_child": {
                                                "split_index": 46,
                                                "split_feature": 2,
                                                "split_gain": 1.5074599559739e-06,
                                                "threshold": 9.500000000000002,
                                                "decision_type": "<=",
                                                "default_left": true,
                                                "missing_type": "None",
                                                "internal_value": -0.0126935,
                                                "internal_weight": 7.02099,
                                                "internal_count": 42,
                                                "left_child": {
                                                    "leaf_index": 20,
                                                    "leaf_value": -0.012698142947629967,
                                                    "leaf_weight": 3.5139517933130273,
                                                    "leaf_count": 21
                                                },
                                                "right_child": {
                                                    "leaf_index": 47,
                                                    "leaf_value": -0.012688875634691947,
                                                    "leaf_weight": 3.507041096687317,
                                                    "leaf_count": 21
                                                }
                                            },
                                            "right_child": {
                                                "split_index": 45,
                                                "split_feature": 2,
                                                "split_gain": 1.5969700370987994e-06,
                                                "threshold": 6.500000000000001,
                                                "decision_type": "<=",
                                                "default_left": true,
                                                "missing_type": "None",
                                                "internal_value": -0.0126869,
                                                "internal_weight": 8.17948,
                                                "internal_count": 49,
                                                "left_child": {
                                                    "leaf_index": 45,
                                                    "leaf_value": -0.012681961513798547,
                                                    "leaf_weight": 3.668602854013443,
                                                    "leaf_count": 22
                                                },
                                                "right_child": {
                                                    "leaf_index": 46,
                                                    "leaf_value": -0.012690845947952983,
                                                    "leaf_weight": 4.510875388979912,
                                                    "leaf_count": 27
                                                }
                                            }
                                        },
                                        "right_child": {
                                            "leaf_index": 23,
                                            "leaf_value": -0.0027584923581078563,
                                            "leaf_weight": 5.026999711990356,
                                            "leaf_count": 30
                                        }
                                    }
                                },
                                "right_child": {
                                    "leaf_index": 12,
                                    "leaf_value": 0.003984617510449611,
                                    "leaf_weight": 4.193118408322333,
                                    "leaf_count": 25
                                }
                            },
                            "right_child": {
                                "split_index": 5,
                                "split_feature": 8,
                                "split_gain": 11.155699729919434,
                                "threshold": 41.50000000000001,
                                "decision_type": "<=",
                                "default_left": true,
                                "missing_type": "None",
                                "internal_value": 0.00155097,
                                "internal_weight": 39.9579,
                                "internal_count": 238,
                                "left_child": {
                                    "split_index": 8,
                                    "split_feature": 6,
                                    "split_gain": 6.400519847869873,
                                    "threshold": 7.500000000000001,
                                    "decision_type": "<=",
                                    "default_left": true,
                                    "missing_type": "None",
                                    "internal_value": 0.00956095,
                                    "internal_weight": 12.1154,
                                    "internal_count": 72,
                                    "left_child": {
                                        "split_index": 33,
                                        "split_feature": 4,
                                        "split_gain": 1.5480999946594238,
                                        "threshold": 1686.0000000000002,
                                        "decision_type": "<=",
                                        "default_left": true,
                                        "missing_type": "None",
                                        "internal_value": 0.00323522,
                                        "internal_weight": 6.8938,
                                        "internal_count": 41,
                                        "left_child": {
                                            "leaf_index": 5,
                                            "leaf_value": -0.0013901629976556405,
                                            "leaf_weight": 3.530403718352316,
                                            "leaf_count": 21
                                        },
                                        "right_child": {
                                            "leaf_index": 34,
                                            "leaf_value": 0.008090260895227568,
                                            "leaf_weight": 3.363398104906082,
                                            "leaf_count": 20
                                        }
                                    },
                                    "right_child": {
                                        "leaf_index": 9,
                                        "leaf_value": 0.017912484247419886,
                                        "leaf_weight": 5.221599519252777,
                                        "leaf_count": 31
                                    }
                                },
                                "right_child": {
                                    "split_index": 10,
                                    "split_feature": 7,
                                    "split_gain": 5.059689998626709,
                                    "threshold": 41.50000000000001,
                                    "decision_type": "<=",
                                    "default_left": true,
                                    "missing_type": "None",
                                    "internal_value": -0.0019345,
                                    "internal_weight": 27.8425,
                                    "internal_count": 166,
                                    "left_child": {
                                        "split_index": 23,
                                        "split_feature": 2,
                                        "split_gain": 3.5902299880981445,
                                        "threshold": 22.500000000000004,
                                        "decision_type": "<=",
                                        "default_left": true,
                                        "missing_type": "None",
                                        "internal_value": -0.00360071,
                                        "internal_weight": 24.1526,
                                        "internal_count": 144,
                                        "left_child": {
                                            "split_index": 24,
                                            "split_feature": 8,
                                            "split_gain": 4.161240100860596,
                                            "threshold": 187.00000000000003,
                                            "decision_type": "<=",
                                            "default_left": true,
                                            "missing_type": "None",
                                            "internal_value": -0.00196629,
                                            "internal_weight": 20.4734,
                                            "internal_count": 122,
                                            "left_child": {
                                                "split_index": 25,
                                                "split_feature": 8,
                                                "split_gain": 4.2505598068237305,
                                                "threshold": 64.50000000000001,
                                                "decision_type": "<=",
                                                "default_left": true,
                                                "missing_type": "None",
                                                "internal_value": 0.00123277,
                                                "internal_weight": 13.617,
                                                "internal_count": 81,
                                                "left_child": {
                                                    "leaf_index": 6,
                                                    "leaf_value": -0.005506947388193032,
                                                    "leaf_weight": 5.546229600906382,
                                                    "leaf_count": 33
                                                },
                                                "right_child": {
                                                    "split_index": 31,
                                                    "split_feature": 7,
                                                    "split_gain": 2.1969199180603027,
                                                    "threshold": 11.500000000000002,
                                                    "decision_type": "<=",
                                                    "default_left": true,
                                                    "missing_type": "None",
                                                    "internal_value": 0.00586427,
                                                    "internal_weight": 8.07081,
                                                    "internal_count": 48,
                                                    "left_child": {
                                                        "leaf_index": 26,
                                                        "leaf_value": 0.01152011039474167,
                                                        "leaf_weight": 3.7104470878839475,
                                                        "leaf_count": 22
                                                    },
                                                    "right_child": {
                                                        "leaf_index": 32,
                                                        "leaf_value": 0.0010514402406959114,
                                                        "leaf_weight": 4.360365554690361,
                                                        "leaf_count": 26
                                                    }
                                                }
                                            },
                                            "right_child": {
                                                "split_index": 40,
                                                "split_feature": 8,
                                                "split_gain": 0.1677750051021576,
                                                "threshold": 325.50000000000006,
                                                "decision_type": "<=",
                                                "default_left": true,
                                                "missing_type": "None",
                                                "internal_value": -0.00831977,
                                                "internal_weight": 6.8563600000000005,
                                                "internal_count": 41,
                                                "left_child": {
                                                    "leaf_index": 25,
                                                    "leaf_value": -0.009846595561119154,
                                                    "leaf_weight": 3.511256977915763,
                                                    "leaf_count": 21
                                                },
                                                "right_child": {
                                                    "leaf_index": 41,
                                                    "leaf_value": -0.006717096928964469,
                                                    "leaf_weight": 3.3450987637043,
                                                    "leaf_count": 20
                                                }
                                            }
                                        },
                                        "right_child": {
                                            "leaf_index": 24,
                                            "leaf_value": -0.012695529164949614,
                                            "leaf_weight": 3.6792494356632224,
                                            "leaf_count": 22
                                        }
                                    },
                                    "right_child": {
                                        "leaf_index": 11,
                                        "leaf_value": 0.008972011774577205,
                                        "leaf_weight": 3.6898498237133017,
                                        "leaf_count": 22
                                    }
                                }
                            }
                        },
                        "right_child": {
                            "split_index": 9,
                            "split_feature": 11776,
                            "split_gain": 5.30797004699707,
                            "threshold": 1.0000000180025095e-35,
                            "decision_type": "<=",
                            "default_left": true,
                            "missing_type": "None",
                            "internal_value": 0.0119002,
                            "internal_weight": 8.11452,
                            "internal_count": 48,
                            "left_child": {
                                "leaf_index": 4,
                                "leaf_value": 0.004770762182871149,
                                "leaf_weight": 4.566287025809286,
                                "leaf_count": 27
                            },
                            "right_child": {
                                "leaf_index": 10,
                                "leaf_value": 0.021075284830797278,
                                "leaf_weight": 3.548228695988655,
                                "leaf_count": 21
                            }
                        }
                    }
                }
            }
        }
    },
    {
        "tree_index": 2,
        "num_leaves": 49,
        "num_cat": 0,
        "shrinkage": 0.01,
        "tree_structure": {
            "split_index": 0,
            "split_feature": 10,
            "split_gain": 41.339500427246094,
            "threshold": 1.0000000180025095e-35,
            "decision_type": "<=",
            "default_left": true,
            "missing_type": "None",
            "internal_value": 0,
            "internal_weight": 0,
            "internal_count": 1279,
            "left_child": {
                "split_index": 20,
                "split_feature": 9825,
                "split_gain": 4.4913201332092285,
                "threshold": 1.0000000180025095e-35,
                "decision_type": "<=",
                "default_left": true,
                "missing_type": "None",
                "internal_value": -0.00673679,
                "internal_weight": 63.9663,
                "internal_count": 384,
                "left_child": {
                    "split_index": 29,
                    "split_feature": 11784,
                    "split_gain": 2.1888298988342285,
                    "threshold": 1.0000000180025095e-35,
                    "decision_type": "<=",
                    "default_left": true,
                    "missing_type": "None",
                    "internal_value": -0.00836527,
                    "internal_weight": 46.43,
                    "internal_count": 279,
                    "left_child": {
                        "split_index": 30,
                        "split_feature": 10561,
                        "split_gain": 2.7193899154663086,
                        "threshold": 1.0000000180025095e-35,
                        "decision_type": "<=",
                        "default_left": true,
                        "missing_type": "None",
                        "internal_value": -0.0072672,
                        "internal_weight": 36.9733,
                        "internal_count": 222,
                        "left_child": {
                            "split_index": 36,
                            "split_feature": 7,
                            "split_gain": 1.1700299978256226,
                            "threshold": 4.500000000000001,
                            "decision_type": "<=",
                            "default_left": true,
                            "missing_type": "None",
                            "internal_value": -0.0102661,
                            "internal_weight": 16.6342,
                            "internal_count": 100,
